<?xml version="1.0"?>
<opencv_storage>
<cascade>
  <stageType>BOOST</stageType>
  <featureType>LBP</featureType>
  <height>80</height>
  <width>60</width>
  <stageParams>
    <boostType>GAB</boostType>
    <minHitRate>9.9500000476837158e-01</minHitRate>
    <maxFalseAlarm>5.0000000000000000e-01</maxFalseAlarm>
    <weightTrimRate>9.4999999999999996e-01</weightTrimRate>
    <maxDepth>1</maxDepth>
    <maxWeakCount>100</maxWeakCount></stageParams>
  <featureParams>
    <maxCatCount>256</maxCatCount>
    <featSize>1</featSize></featureParams>
  <stageNum>14</stageNum>
  <stages>
    <!-- stage 0 -->
    <_>
      <maxWeakCount>2</maxWeakCount>
      <stageThreshold>-1.0916161537170410e-01</stageThreshold>
      <weakClassifiers>
        <_>
          <internalNodes>
            0 -1 9 -10241 -585513521 -528247335 286783647 -123078197
            -1295326049 -1009797445 1069544111</internalNodes>
          <leafValues>
            -9.6602970361709595e-01 9.2808550596237183e-01</leafValues></_>
        <_>
          <internalNodes>
            0 -1 16 -73400321 -112618409 1879388637 -1648888041
            -105387813 -83773751 -610013265 1598814975</internalNodes>
          <leafValues>
            -9.9008589982986450e-01 8.5686808824539185e-01</leafValues></_></weakClassifiers></_>
    <!-- stage 1 -->
    <_>
      <maxWeakCount>1</maxWeakCount>
      <stageThreshold>8.9184063673019409e-01</stageThreshold>
      <weakClassifiers>
        <_>
          <internalNodes>
            0 -1 12 -1145323621 -1189900007 -1560037987 -1088478247
            -1182360069 -1178892167 -1719036993 -1080049985</internalNodes>
          <leafValues>
            -9.8654711246490479e-01 8.9184063673019409e-01</leafValues></_></weakClassifiers></_>
    <!-- stage 2 -->
    <_>
      <maxWeakCount>2</maxWeakCount>
      <stageThreshold>-2.1498341113328934e-02</stageThreshold>
      <weakClassifiers>
        <_>
          <internalNodes>
            0 -1 20 -18 -1 -4370 -1 -1 2013265919 -1 -134217729</internalNodes>
          <leafValues>
            -8.5247629880905151e-01 8.8200879096984863e-01</leafValues></_>
        <_>
          <internalNodes>
            0 -1 6 -664076801 -791573477 1360568207 -786443873
            -223700341 -125592565 -1029517781 -259260769</internalNodes>
          <leafValues>
            -8.3260232210159302e-01 8.3097797632217407e-01</leafValues></_></weakClassifiers></_>
    <!-- stage 3 -->
    <_>
      <maxWeakCount>1</maxWeakCount>
      <stageThreshold>8.5143917798995972e-01</stageThreshold>
      <weakClassifiers>
        <_>
          <internalNodes>
            0 -1 27 -144966657 -245518121 1094832571 -10511905
            -259607573 -53573604 -100406593 2135948255</internalNodes>
          <leafValues>
            -9.8581558465957642e-01 8.5143917798995972e-01</leafValues></_></weakClassifiers></_>
    <!-- stage 4 -->
    <_>
      <maxWeakCount>2</maxWeakCount>
      <stageThreshold>3.0803376808762550e-02</stageThreshold>
      <weakClassifiers>
        <_>
          <internalNodes>
            0 -1 23 -286 -1 -4192 2004877311 -50336018 83886079 -274
            -134217729</internalNodes>
          <leafValues>
            -7.8260868787765503e-01 8.6332350969314575e-01</leafValues></_>
        <_>
          <internalNodes>
            0 -1 0 -124070448 -615517185 -1056923589 -141701115
            -662005538 -7615031 -789656625 -68160833</internalNodes>
          <leafValues>
            -8.3103466033935547e-01 8.1341207027435303e-01</leafValues></_></weakClassifiers></_>
    <!-- stage 5 -->
    <_>
      <maxWeakCount>1</maxWeakCount>
      <stageThreshold>7.5549691915512085e-01</stageThreshold>
      <weakClassifiers>
        <_>
          <internalNodes>
            0 -1 15 -136456225 -581044323 25772255 -544629833 -915871233
            -133561176 1393197983 1610611615</internalNodes>
          <leafValues>
            -9.8898071050643921e-01 7.5549691915512085e-01</leafValues></_></weakClassifiers></_>
    <!-- stage 6 -->
    <_>
      <maxWeakCount>2</maxWeakCount>
      <stageThreshold>-1.1976346373558044e-01</stageThreshold>
      <weakClassifiers>
        <_>
          <internalNodes>
            0 -1 4 -606998025 -79449035 -784328293 -136982143 -125699941
            -1132420821 -39271525 2134885059</internalNodes>
          <leafValues>
            -8.5383677482604980e-01 7.8063333034515381e-01</leafValues></_>
        <_>
          <internalNodes>
            0 -1 21 -68158518 -212608038 -1878985824 -204085902
            -869692984 1372623559 -1585329206 -740557861</internalNodes>
          <leafValues>
            -8.1894880533218384e-01 7.3407334089279175e-01</leafValues></_></weakClassifiers></_>
    <!-- stage 7 -->
    <_>
      <maxWeakCount>2</maxWeakCount>
      <stageThreshold>-4.8704389482736588e-02</stageThreshold>
      <weakClassifiers>
        <_>
          <internalNodes>
            0 -1 11 -536948994 -1192708 -570503939 -570438404 -806367505
            -806359825 -536949249 -536879361</internalNodes>
          <leafValues>
            -7.8923767805099487e-01 8.0834913253784180e-01</leafValues></_>
        <_>
          <internalNodes>
            0 -1 1 -707588481 -753859496 -653261825 -217906107
            -359888741 -100564840 -1614050561 -6583297</internalNodes>
          <leafValues>
            -7.7620762586593628e-01 7.4053329229354858e-01</leafValues></_></weakClassifiers></_>
    <!-- stage 8 -->
    <_>
      <maxWeakCount>2</maxWeakCount>
      <stageThreshold>-1.3124273158609867e-02</stageThreshold>
      <weakClassifiers>
        <_>
          <internalNodes>
            0 -1 24 -351611682 -81805167 -1894751661 -250371623
            -951401748 -1146445505 -1354585366 -68255030</internalNodes>
          <leafValues>
            -7.9411762952804565e-01 7.5457876920700073e-01</leafValues></_>
        <_>
          <internalNodes>
            0 -1 22 -740559986 -170012364 286316786 1897906397
            -788204416 856240257 -2012839682 -201590117</internalNodes>
          <leafValues>
            -6.2359631061553955e-01 7.8099340200424194e-01</leafValues></_></weakClassifiers></_>
    <!-- stage 9 -->
    <_>
      <maxWeakCount>2</maxWeakCount>
      <stageThreshold>-2.7436774969100952e-01</stageThreshold>
      <weakClassifiers>
        <_>
          <internalNodes>
            0 -1 26 -210247681 -711933821 -518916741 -132939760
            -70779905 -1979594623 -24516193 1250884255</internalNodes>
          <leafValues>
            -9.4743758440017700e-01 7.6864671707153320e-01</leafValues></_>
        <_>
          <internalNodes>
            0 -1 25 420712919 -1258170347 -1131377153 -4605037
            -796884834 -721371136 -917714485 -3170337</internalNodes>
          <leafValues>
            -7.8435939550399780e-01 6.7306983470916748e-01</leafValues></_></weakClassifiers></_>
    <!-- stage 10 -->
    <_>
      <maxWeakCount>3</maxWeakCount>
      <stageThreshold>3.6308950185775757e-01</stageThreshold>
      <weakClassifiers>
        <_>
          <internalNodes>
            0 -1 17 -2146725906 -586049123 -1794835154 -548048617
            -2097111141 1073774728 -1844935749 -137643365</internalNodes>
          <leafValues>
            -8.5306119918823242e-01 7.1832227706909180e-01</leafValues></_>
        <_>
          <internalNodes>
            0 -1 19 -614989825 -673217321 -1738031009 -36978481
            -1601648503 -901152768 1158218378 2133788770</internalNodes>
          <leafValues>
            -1. 5.3170466423034668e-01</leafValues></_>
        <_>
          <internalNodes>
            0 -1 13 -236730496 -251592541 -1878996992 -669969336
            -2146180783 -108412800 -671088182 -23371533</internalNodes>
          <leafValues>
            -7.8661340475082397e-01 6.8444603681564331e-01</leafValues></_></weakClassifiers></_>
    <!-- stage 11 -->
    <_>
      <maxWeakCount>2</maxWeakCount>
      <stageThreshold>-3.1153680756688118e-02</stageThreshold>
      <weakClassifiers>
        <_>
          <internalNodes>
            0 -1 2 60407 -142474491 960633309 -74739373 138445567
            -1992253312 662882715 -1378899</internalNodes>
          <leafValues>
            -8.1673306226730347e-01 7.1873611211776733e-01</leafValues></_>
        <_>
          <internalNodes>
            0 -1 3 -737093313 -183438075 -720109549 -184211427
            -889156033 -132120558 -670986865 -10239201</internalNodes>
          <leafValues>
            -6.9787245988845825e-01 7.8557938337326050e-01</leafValues></_></weakClassifiers></_>
    <!-- stage 12 -->
    <_>
      <maxWeakCount>2</maxWeakCount>
      <stageThreshold>-2.2044704854488373e-01</stageThreshold>
      <weakClassifiers>
        <_>
          <internalNodes>
            0 -1 14 -703072257 8734119 268534791 1268037423 135376847
            1073775490 226593691 1392503743</internalNodes>
          <leafValues>
            -9.2422193288803101e-01 7.4436092376708984e-01</leafValues></_>
        <_>
          <internalNodes>
            0 -1 7 -582419313 -587200500 352392205 -587120383 -938956661
            -100499453 -536180341 -8199793</internalNodes>
          <leafValues>
            -7.3375314474105835e-01 7.0377486944198608e-01</leafValues></_></weakClassifiers></_>
    <!-- stage 13 -->
    <_>
      <maxWeakCount>4</maxWeakCount>
      <stageThreshold>-4.3199017643928528e-02</stageThreshold>
      <weakClassifiers>
        <_>
          <internalNodes>
            0 -1 10 1946143511 -1870659589 -1220796399 -772538369 -6351
            -2137063426 -142724573 -252182787</internalNodes>
          <leafValues>
            -5.8714705705642700e-01 8.1246834993362427e-01</leafValues></_>
        <_>
          <internalNodes>
            0 -1 18 2138395989 1527190037 1178668651 -821135288
            -2136470645 -1409105768 -1609849205 -74798696</internalNodes>
          <leafValues>
            -8.0275315046310425e-01 6.5029090642929077e-01</leafValues></_>
        <_>
          <internalNodes>
            0 -1 5 -205802509 -310345 -1007429121 -805894401 -67373057
            -202198021 267586491 1609796339</internalNodes>
          <leafValues>
            -6.9055229425430298e-01 7.0222741365432739e-01</leafValues></_>
        <_>
          <internalNodes>
            0 -1 8 -1466963069 495985173 -1878289152 -49102844
            -125648205 -566032374 -803024872 -72438</internalNodes>
          <leafValues>
            -7.1758872270584106e-01 6.4447373151779175e-01</leafValues></_></weakClassifiers></_></stages>
  <features>
    <_>
      <rect>
        1 26 19 17</rect></_>
    <_>
      <rect>
        2 28 10 7</rect></_>
    <_>
      <rect>
        7 41 7 5</rect></_>
    <_>
      <rect>
        11 21 9 8</rect></_>
    <_>
      <rect>
        11 32 12 5</rect></_>
    <_>
      <rect>
        12 30 16 5</rect></_>
    <_>
      <rect>
        17 29 9 5</rect></_>
    <_>
      <rect>
        18 26 8 5</rect></_>
    <_>
      <rect>
        19 44 4 4</rect></_>
    <_>
      <rect>
        21 32 8 6</rect></_>
    <_>
      <rect>
        21 39 5 1</rect></_>
    <_>
      <rect>
        22 26 10 5</rect></_>
    <_>
      <rect>
        23 28 10 8</rect></_>
    <_>
      <rect>
        23 45 5 2</rect></_>
    <_>
      <rect>
        25 36 1 2</rect></_>
    <_>
      <rect>
        26 38 1 1</rect></_>
    <_>
      <rect>
        26 39 1 1</rect></_>
    <_>
      <rect>
        26 39 3 1</rect></_>
    <_>
      <rect>
        26 42 10 5</rect></_>
    <_>
      <rect>
        27 39 1 1</rect></_>
    <_>
      <rect>
        27 39 2 1</rect></_>
    <_>
      <rect>
        28 37 2 2</rect></_>
    <_>
      <rect>
        29 38 1 1</rect></_>
    <_>
      <rect>
        29 39 1 1</rect></_>
    <_>
      <rect>
        31 32 6 4</rect></_>
    <_>
      <rect>
        31 36 7 5</rect></_>
    <_>
      <rect>
        31 40 1 1</rect></_>
    <_>
      <rect>
        32 39 1 1</rect></_></features></cascade>
</opencv_storage>
